station_id,bias,lat,lon,n
10004,0.7398060855079223,,,230
10006,1.2314990445314773,,,226
10008,0.5447291412329904,,,230
10009,0.4218494822040617,,,227
1001,0.22622779878914764,,,230
10010,0.18593500490794806,,,228
10011,0.8746952120015582,,,230
10012,-0.5930392880288068,,,227
10013,-0.23218778626647002,,,224
10014,0.2591629879007917,,,225
10015,-1.064161619861007,,,224
10017,0.5378932977980274,,,228
10018,-0.7672963374104331,,,225
10019,0.023811892425886782,,,229
10020,-0.3244526341094617,,,228
10021,-0.4865088330738245,,,229
10026,-0.8302775506509344,,,224
10027,0.055940981615031235,,,226
1003,0.8169930333894364,,,225
10031,-0.8094901112186361,,,227
10032,-1.0429695964349834,,,231
10033,-0.6015862310339147,,,229
10034,-0.4703917343939455,,,223
10037,-0.7367093051525907,,,226
10041,-0.7061126251791205,,,227
10042,0.7794495376781343,,,229
1006,0.813632207928368,,,227
1007,0.7242074050873066,,,228
1008,0.006644314092486076,,,226
10105,0.07751891568871137,,,223
10107,-1.6757065440624923,,,232
10110,-0.637121884493679,,,229
10113,-0.9090879220022179,,,228
10115,-0.7294054569421368,,,233
1012,0.49752659883723993,,,226
1013,-0.9523640262592364,,,231
10151,0.5609425389286813,,,230
1016,0.3392662102754559,,,227
10161,-0.5489610717441531,,,231
10162,-0.6720602255950558,,,227
10164,-0.5819719590131588,,,230
10165,-0.6741192592634934,,,229
10166,0.3865497043088511,,,228
1017,0.8045405670686621,,,231
1020,1.794169423991895,,,227
10201,0.6781511853740574,,,227
10202,-0.5743890925799664,,,224
10206,-0.2976275424599983,,,226
10207,-0.7267240306776223,,,153
1021,0.6826993577251229,,,226
1023,0.19836763796977605,,,229
1024,0.9140246931881228,,,231
1025,0.8573310058571557,,,228
1026,0.30720415815283486,,,228
11001,1.3923108173814047,,,228
11002,1.1926014524629216,,,230
11004,0.7370137835769833,,,228
11007,-0.61979436230547,,,230
11009,0.24410758394475515,,,231
11010,-0.2984965325322639,,,229
11011,0.6023073159733715,,,230
11014,-0.3392780749849764,,,222
11016,-1.1753032854464198,,,227
11017,-1.581869495546348,,,229
11019,-0.46731371850841846,,,226
1102,0.40389399733690984,,,227
11020,0.8596705641670416,,,225
11022,0.8991146311670752,,,227
11023,1.2484508244367694,,,228
11024,2.9924778119154336,,,229
11025,1.1744654979268248,,,230
11026,0.11487354891944754,,,228
11027,0.45345912024453183,,,226
11029,0.24460240893989146,,,223
11030,-0.10931060922588344,,,225
11031,0.6167064225823782,,,229
11033,0.5039628497022065,,,230
11034,-0.4206385110032107,,,231
11036,-0.5128978549124369,,,226
11038,0.6003250059136427,,,227
11039,-0.11982829396087251,,,226
11040,0.4351741456915161,,,230
11042,-0.3853601102380344,,,229
11044,0.32834576196948323,,,225
11047,1.076224719831577,,,228
11101,1.6117809149702604,,,229
11102,-0.06301040164329692,,,226
11105,-1.114951895662207,,,228
11107,1.2440521429768783,,,228
11111,0.6281837113492275,,,232
11112,0.9701773866365956,,,228
11113,0.37482576864632916,,,233
11114,0.8322347453242455,,,229
11115,0.5348741470028785,,,225
1116,0.18313039489489452,,,229
1117,0.9702634808685054,,,222
1119,0.8387394075954678,,,224
1120,0.2101242329998175,,,230
12001,0.47939503311327397,,,228
12002,0.5655577861275456,,,227
12005,1.8763307627443326,,,226
12008,2.1926020399386137,,,224
12009,0.7477295703622066,,,232
12011,2.042385447691849,,,227
12013,0.3011299222676566,,,229
12015,-1.3307740174729819,,,228
12018,-0.4877831205739426,,,224
12020,-1.1285277153120596,,,227
12026,2.886690388263087,,,228
12027,1.194632894548533,,,232
12028,-0.7542449907914738,,,229
12031,1.9019602485543514,,,232
12033,2.298858787032039,,,226
12034,1.2920016985711371,,,229
12035,0.9516665245409348,,,226
12036,-1.1224283934021333,,,229
12037,-0.7093795845686834,,,227
12038,-0.3758944822261017,,,227
12039,3.4299582401259765,,,225
12040,-1.4274476527726518,,,224
12043,2.6444882118676447,,,230
12101,1.0243223330091662,,,231
12102,1.3197832503251088,,,225
12106,2.281377196417876,,,227
12107,0.3202428446620273,,,225
12109,0.7956894840592093,,,230
12114,-0.4825585717756497,,,226
12119,0.6850072522908174,,,225
12122,-1.5717483246750537,,,225
12123,-0.1279069250166104,,,226
12125,0.924256395284113,,,229
12128,0.3060786619767339,,,230
12150,1.0391451894930115,,,232
12151,2.093420033223299,,,231
12153,1.3675037520036302,,,224
12154,0.7259355916773228,,,225
12155,0.5155116358863797,,,226
12156,-0.33743303030897787,,,229
12157,-0.9744926507271734,,,226
12161,2.774936216191396,,,228
12163,-1.2201920746941666,,,228
12164,-0.2970331563027945,,,232
12165,2.3789254721813804,,,230
12201,0.5580731736905928,,,224
12202,0.9660482872499123,,,225
12203,0.5240029496345385,,,227
12204,1.5438649339834232,,,226
12505,-0.6198247730409948,,,14
13001,0.15423131057391906,,,227
13002,0.8832895112759674,,,227
13005,0.7307800132198682,,,229
13006,1.4164113226906212,,,226
13008,0.9445162649529008,,,227
13009,-0.42453180307615224,,,231
13010,-0.02918542183565369,,,230
13011,-0.4099918673196243,,,228
13013,0.6642797072953559,,,230
13015,1.5323532456046616,,,227
13016,0.8441198636720415,,,227
13018,1.3270807171542034,,,230
13019,0.49402072805949476,,,229
13023,-0.43829421205185465,,,226
13024,0.30578981051100523,,,223
13026,-1.107476779170421,,,225
13027,0.2220102335979377,,,232
13032,-0.9846216345271682,,,229
13033,-0.6642428826018686,,,230
13035,-0.41020384697350476,,,228
13036,-0.2782815835490364,,,229
13037,-0.4263093992033491,,,230
13039,-0.644513693230351,,,231
13041,1.6780203478159281,,,229
13044,-0.4983994657740674,,,229
13045,-0.4462902650086234,,,230
13046,-0.4485910448130719,,,229
13047,2.738463215698842,,,230
13049,0.5453916366212316,,,229
13051,0.021552310029996153,,,222
13052,1.5540799555012637,,,231
13053,1.5981511636096062,,,231
13054,0.7768936016085385,,,225
13055,0.4431631186512735,,,227
13101,0.05440378202717583,,,234
13103,-1.163970433753261,,,229
13104,-0.19702038928867038,,,234
13106,-0.08990409802682904,,,229
13109,0.5157509050338399,,,225
13110,-0.6116914231148725,,,232
13113,-0.6740955656228256,,,229
13114,-0.5477119732730655,,,229
13116,0.6119699784383356,,,226
13117,-0.7363823295978461,,,229
13118,2.79205644829444,,,232
13120,1.0019213192008132,,,229
13125,0.9247039954539339,,,230
13126,-0.41475963922036857,,,227
13203,-0.7548377483005068,,,225
13204,0.9812206423530998,,,226
13515,-0.34036305814964535,,,234
13516,0.20716330312313153,,,228
14001,-0.7327168988281832,,,227
14002,-0.5956302223865355,,,234
14003,-1.0823787533486615,,,232
14004,-0.5717180969303303,,,228
14005,-1.2686697876855677,,,226
14008,-0.8199610590858504,,,229
14010,-0.6197704523017336,,,228
14011,-0.934530601095587,,,228
14012,-0.6647323593692799,,,229
14013,0.8224807487297321,,,233
14016,-0.6183309011888268,,,230
14018,-0.8822067861419721,,,229
14019,-0.6761011586949307,,,223
14020,-1.2450488191052251,,,231
14023,-1.658341588748217,,,230
14026,-1.6425882467162105,,,228
14031,-0.4721889724737116,,,231
14036,-1.241690685255157,,,228
14101,-0.3571253500657764,,,231
14103,-0.9114696361935997,,,225
14104,-0.6619221385091162,,,232
14106,-0.621697425946624,,,229
14108,-0.9087158860450214,,,234
14112,-0.851976506152433,,,230
14113,0.48414850463970527,,,226
14116,-0.9666479728533045,,,231
14122,-0.6817234584669469,,,231
14124,-0.4309073986417539,,,226
14125,-0.3104655469793102,,,230
14130,-0.6754081817837899,,,222
14132,-0.8395061002981345,,,225
14133,-1.0724092494421817,,,227
14135,-0.21303403045569538,,,226
14136,-1.6979138663345787,,,231
14137,-1.040601286613191,,,227
14139,-1.1592791617384257,,,230
14201,-0.7358304908699078,,,226
15003,0.0020976404399397873,,,224
15004,-0.5907969422371506,,,230
15005,-0.718789412477555,,,225
15006,-0.7090868173463807,,,230
15008,-0.048057596247185766,,,228
15009,0.33311061717406876,,,230
15011,-0.3394646720635739,,,229
15012,2.4833195355974946,,,227
15014,0.19277209332319195,,,227
15017,0.06508685334198039,,,229
15019,0.12732647333554908,,,225
15020,2.439166050166433,,,226
15021,1.9441328569349903,,,229
15022,1.092449665952195,,,225
15023,-0.3891992187206204,,,229
15024,-0.3490780730951012,,,229
15025,1.1434505192304272,,,233
15026,1.3600270732907558,,,226
15028,0.38881158267273835,,,231
15030,1.658483189622977,,,223
15032,2.8942231180117135,,,229
15033,0.7446343733081753,,,229
15034,1.221681398992814,,,227
15039,-0.10922864492686775,,,229
15040,-0.4115728008588527,,,232
15041,-0.7574146865156626,,,225
15042,-0.08115865617776398,,,227
15043,0.12002354930958839,,,227
15044,-1.3126622715411471,,,229
15046,-0.42519444465989903,,,230
15047,-1.0735621562200968,,,232
15052,2.0468517697212634,,,227
15054,0.9829254768165362,,,226
15055,2.570181770925259,,,229
15056,1.2756345889731824,,,229
15057,0.014929288572568273,,,223
15058,1.9332713586557964,,,230
15059,-0.41259996258261367,,,153
15060,0.9298227018024745,,,224
15061,0.24276447156914785,,,230
15062,1.8773521496387071,,,226
15063,1.658010731341846,,,230
15064,1.594389834128927,,,226
15067,0.4904347289836503,,,232
15068,-0.3811281006007079,,,235
15069,1.4161626981094886,,,226
15070,0.48932741896870596,,,231
15071,0.2557909247078308,,,224
15072,1.8869138867910382,,,229
15103,0.7452721778684608,,,227
15104,-0.17008472105656455,,,228
15105,-0.03671143099750361,,,229
15106,0.601980619174831,,,229
15107,1.0146682711079953,,,231
15111,-0.19054066018999524,,,228
15112,-0.4797414364039064,,,236
15113,-0.499093867501312,,,228
15114,-1.0789487142304717,,,229
15120,1.5727776333044885,,,227
15122,0.036365153182589614,,,224
15123,0.4466648350031984,,,228
15125,1.0391214890839073,,,227
15127,2.5505586517693435,,,227
15128,1.3794353143214944,,,224
15131,0.9250222656650813,,,225
15132,-0.42501187192293316,,,226
15133,0.2860573509460778,,,232
15201,-0.9451578409821206,,,228
15202,-1.042131597699783,,,231
15203,0.9832288961938239,,,229
15204,0.41648860480103705,,,228
15311,0.31904051216589624,,,228
16002,-0.9818275277196632,,,233
16003,-0.6969647872085291,,,231
16005,-1.1052772371605801,,,228
16006,-0.6818739483353172,,,224
16007,-0.21023192951690475,,,229
16009,-0.8905902307119483,,,229
16010,-0.997231923452542,,,231
16011,-1.528903596158106,,,234
16012,-0.8124995752790486,,,227
16013,-1.0602855652111556,,,227
16015,-0.29304182166071663,,,232
16017,-0.7382595898670458,,,230
16019,-0.5994572929836903,,,231
16020,-0.6019727649218848,,,228
16021,-0.7679319021404705,,,229
16023,-0.26044938051648403,,,229
16024,0.9389578127561287,,,229
16025,1.1106169470388063,,,227
16026,-0.567262642959908,,,233
16027,-0.6837809520110971,,,231
16029,3.458343017985551,,,230
16031,-0.7652553137733137,,,227
16032,0.18020616814460344,,,227
16034,-0.6947173955309349,,,229
16036,1.2849271239509457,,,227
16041,2.3007606436634505,,,231
16042,0.2896002511234507,,,229
16043,-0.35510358038023915,,,229
16044,0.37452578514402457,,,229
16101,-1.0462657670911846,,,229
16102,-0.6458088322492279,,,230
16103,-0.7228518029509993,,,226
16104,-1.3642411076832952,,,231
16105,-0.9418542723829115,,,231
16107,-1.1216266734155524,,,228
16108,-0.8099893432732662,,,231
16110,-0.745322721409505,,,234
16111,-0.7091198074225052,,,231
16116,1.33626185219567,,,226
16118,0.07673953519435342,,,235
16123,-0.34434212982531254,,,229
16124,1.4633529709020618,,,231
16129,-1.2762528656112395,,,230
16136,1.5716827115415208,,,227
16138,-1.4283612599613733,,,236
16139,-1.255715639576269,,,228
16140,-0.3322581337222972,,,227
16201,-1.2242294433646335,,,232
17001,-0.10163482123613195,,,228
17003,-1.3219402545138645,,,230
17004,-0.8035230678895138,,,232
17005,-1.4922152823189376,,,226
17006,0.24029358280200053,,,226
17007,-1.0678808712250494,,,229
17008,-0.5212868383451986,,,237
17010,-0.2382176063212834,,,226
17011,0.83733121644235,,,225
17015,-1.3661542130436393,,,230
17017,-0.7922944845835616,,,228
17018,-0.6427473935428185,,,228
17019,-0.6146165839737944,,,227
17021,-1.1938278517275347,,,230
17022,-0.26344153855954044,,,234
17023,-0.202042808851034,,,227
17024,-0.6528771826737655,,,229
17027,-0.9139090983887344,,,226
17028,-1.145007612215932,,,229
17030,-0.2971258909079918,,,233
17032,-0.2571946791953552,,,231
17033,-0.9187168773553535,,,229
17037,0.2856438999075428,,,231
17038,-1.692347298983293,,,229
17039,-1.1294593081068027,,,232
17040,-1.4678765573150954,,,227
17041,0.7102848502051793,,,230
17043,-1.487704565823234,,,232
17044,-1.4742641140503077,,,231
17045,-1.51821806850232,,,229
17047,-0.7749385589941692,,,232
17050,-1.3451620795671966,,,227
17102,0.013268047282681106,,,229
17104,-0.5343398129598058,,,224
17105,-1.2411818219590343,,,226
17106,1.004097289802691,,,229
17108,0.7901218325529294,,,225
17110,-0.5505742535049608,,,228
17111,-0.21161222999365265,,,228
17117,-0.9046716393019946,,,228
17119,-0.6508984555568154,,,228
17121,0.5106950701026606,,,231
17122,-0.7976537928315736,,,227
17123,-0.09054399824949604,,,229
17124,-1.1696087457455495,,,224
17125,-1.2581097868629736,,,224
17127,0.9532260300719994,,,228
17201,-1.1666052319070213,,,226
17202,-0.781287951551156,,,228
17203,-0.21461759319391263,,,228
18003,-0.9237954002091121,,,231
18004,-0.40313137666618504,,,225
18005,-0.6807885837924647,,,229
18007,-0.45613171743629666,,,231
18010,0.12784984909017022,,,227
18011,0.20302998886401663,,,234
18012,-0.6633993166388545,,,227
18014,0.22156926946249966,,,230
18015,-0.257901224325108,,,223
18017,-1.651931936362851,,,226
18019,-1.0345545566311924,,,228
18020,0.06913996500661232,,,228
18021,-1.5283177374360422,,,229
18022,-0.7892104170725233,,,228
18023,-0.904163030553165,,,227
18024,-1.1137145520952363,,,229
18025,-1.329127931924355,,,233
18028,-0.4294773798907844,,,225
18029,-0.14856814132544902,,,228
18030,-0.8391991888424762,,,227
18032,-1.8667676880558695,,,227
18034,-0.7433891537661549,,,230
18035,-0.5395153813603439,,,230
18039,-0.2076759588932198,,,228
18042,-0.19035332890459697,,,227
18043,-0.24066174423902703,,,227
18045,-0.3689475057450867,,,229
18046,-0.41144147020955113,,,230
18049,-1.2964056767390437,,,229
18101,-0.399720230658588,,,224
18107,-1.1984169194290357,,,233
18109,0.17192993547587448,,,225
18111,-0.8710610275967462,,,231
18113,-0.9868800784172019,,,227
18114,-0.7296301889777681,,,229
18134,-1.4413260008734934,,,226
18135,-0.6818499320391839,,,227
18137,-1.063900029644876,,,231
18139,-1.0432395488092108,,,232
18140,-1.0863979152532652,,,227
18141,-0.23816543562646972,,,229
18201,-0.41396883730968614,,,228
18202,0.520653714975121,,,228
18204,-0.17195431690720933,,,234
18205,0.039005020595291276,,,226
18206,-0.8800937196410151,,,221
19001,-0.6954456731569777,,,228
19002,-0.4952378401210202,,,228
19003,-0.40351275014010857,,,231
19005,0.039261966289471685,,,226
19007,-0.03693979389822231,,,230
19008,-0.32898449172660765,,,228
19009,-0.4450745839279607,,,228
19010,0.23693144820065912,,,228
19012,-0.3636822946320265,,,227
19015,-0.32790286712210537,,,232
19018,-1.455321724452056,,,227
19021,-0.8032403611915121,,,230
19023,-0.7638516806567615,,,229
19025,-0.5299735293190614,,,232
19030,-0.724203527291732,,,231
19031,0.11842116495472658,,,228
19032,-1.227920868972588,,,224
19037,-0.826377168291374,,,227
19038,-0.17086466630926564,,,230
19039,-0.7187432058749985,,,229
19041,-1.0825186714013104,,,226
19043,-2.1025205894074253,,,231
19044,-0.22343321584883627,,,228
19045,-1.392746705890895,,,229
19046,-0.9101855085213277,,,227
19101,-0.28308323652858486,,,230
19103,-0.3768623307880204,,,227
19108,-0.8663585363108972,,,226
19110,-0.7227139151119203,,,233
19111,-0.5717470920299955,,,225
19113,-1.0669563524012364,,,227
19117,-0.3681085339854979,,,229
19120,-0.6806197898862824,,,232
19123,-1.0794476818535488,,,230
19124,-0.883907140090789,,,232
19125,-0.5665917833041441,,,230
19127,-0.46313737953585715,,,229
19128,-0.31435702111875624,,,231
19130,-1.3668825724125704,,,222
19201,-0.7031188799325679,,,226
19202,-0.9522326843919647,,,232
19203,-1.0452169312292654,,,230
19205,0.023278445781554653,,,229
19210,-0.6669236909121039,,,153
20001,0.10482533802696069,,,228
20003,-0.16857539644230624,,,229
20004,-0.46035183104284577,,,231
20007,-0.5884896310488392,,,208
20008,-0.6977329300302466,,,228
20009,-0.6111633994128897,,,232
2001,1.016742735394811,,,230
20010,-1.009120656651191,,,232
20012,-0.46909273498293896,,,229
20013,-0.8609110895438287,,,229
20014,-0.3586641925399544,,,221
20016,-0.5024547662306351,,,229
20017,-0.910534720931233,,,229
20019,-0.8891546329991087,,,232
20020,-1.0596027368913665,,,229
20021,-1.0745574888762504,,,222
20022,-1.0297651402530539,,,226
20023,-0.5824376277523394,,,232
20024,-1.0687830391442268,,,230
20029,-0.45629161353083847,,,222
2003,-0.07057183205933071,,,223
20030,-0.03769957330660535,,,229
20032,-0.8130854069728598,,,228
20033,-1.5046645958526619,,,226
20034,-0.6397554006284237,,,228
20035,-1.0826250504652608,,,234
20036,-1.195922668608153,,,231
20037,-0.7892537271881702,,,227
20039,-1.1403585229878512,,,232
2004,0.1913294849304999,,,228
20042,-1.8658882430612442,,,227
20043,-0.9257361554102014,,,228
20044,-1.266309700574633,,,229
20045,-0.4062425233362868,,,231
20047,0.8126918610825783,,,225
20048,-0.6830825485926841,,,229
2005,0.5816818939313119,,,227
2006,0.10411509611361475,,,229
2008,-0.2480866881299951,,,231
2009,-0.4159978563444507,,,231
2010,-0.09620095184673727,,,228
20104,-0.8340899033856807,,,227
20106,-1.1238734806269932,,,230
20108,-1.084861402621072,,,229
20110,-0.8796608402149836,,,228
20111,-0.6580422735896703,,,228
20113,-0.832703679358908,,,226
20115,-0.7376570978493132,,,230
20116,-0.4691605303272568,,,228
20119,-0.9620057868817404,,,228
2012,-1.5161090814720308,,,230
20121,-0.8693187359358033,,,232
20122,-0.7644629715882363,,,231
20131,-1.0070198097291483,,,231
20134,-0.7856236742956917,,,228
20136,-1.1045134327508053,,,232
20137,-1.0519455493005052,,,231
20140,-0.6329007549436626,,,230
20142,-0.7345910819781947,,,229
2015,0.10018137719033152,,,226
2016,0.7878163788937054,,,229
2020,0.38860262872655826,,,230
20201,-0.7195603160749191,,,227
20202,-0.8665625853443728,,,229
20203,-0.7593288588224784,,,231
2021,-0.753637193551567,,,227
2022,-0.6722929874253079,,,229
21001,1.0765943777901716,,,229
21004,1.0536476793545408,,,230
21005,0.7595430292629565,,,228
21006,1.2979071489761027,,,229
21008,-0.1735183613447537,,,227
21010,0.8144249954692697,,,229
21011,-0.07892642558146196,,,227
21013,0.06763190182845706,,,225
21014,0.4956664984512383,,,229
21015,0.03650938439590931,,,232
21017,-1.232654626240709,,,229
21021,1.5543208825988681,,,228
21022,0.15327574443580716,,,227
21023,1.3625582554745033,,,227
21024,-0.05981176426206122,,,229
21026,-0.10668140217044382,,,226
21028,0.00629242749859467,,,227
21029,0.3829078722759724,,,229
21030,0.7426243395792377,,,232
21031,-0.7222162865122493,,,226
21032,0.18620578156589526,,,225
21033,0.4261609661103871,,,230
2108,-0.0779924718037227,,,227
21104,1.0096963986712868,,,230
21107,0.8809511213675698,,,226
21108,2.9657165903301492,,,228
21109,1.2896783662376108,,,227
2111,0.10478158209313611,,,228
21110,1.3472435712556834,,,211
21111,0.7686193541239467,,,226
21112,1.2382964295244132,,,229
21114,-0.04567114681245247,,,228
21119,1.1385756331801509,,,227
21120,-0.01617496965453287,,,225
21204,-0.9174407603579022,,,227
21205,-1.091866934779353,,,226
21207,-0.6658817796947574,,,227
21209,-0.7266003671291327,,,228
21215,-0.7013882452977981,,,229
21217,-1.0954070418632194,,,229
21218,-0.7166786105382992,,,229
21219,-1.526830397058412,,,229
21301,0.6595786757617003,,,228
21302,1.5865728027296377,,,229
21307,0.911888227243177,,,230
21308,-0.29590800956377533,,,227
21309,1.3241254098617825,,,233
21312,-0.8175029138991862,,,231
21313,1.5680445764724547,,,229
21316,-0.4006167021355231,,,227
21319,0.9739488786911842,,,230
21320,0.6747177289163793,,,229
21323,1.5360955760641226,,,230
21326,-0.3466254318922764,,,233
21327,1.6127743192278716,,,230
21328,-0.9733019139999441,,,234
21329,1.4457035961418827,,,228
21404,0.27833180280205966,,,227
21501,0.9252088416860332,,,226
21502,-0.19184477150120352,,,230
21505,-0.6812459259418704,,,228
21506,-0.7989015334907746,,,226
21507,-0.8839954670297558,,,232
21508,0.3390042020985545,,,231
21511,0.9420460332197605,,,230
21514,-0.6484198780264582,,,227
21701,-0.20971265244290926,,,222
21702,-1.2176979935537813,,,228
21703,0.13096251586197252,,,231
21704,1.3931941938987031,,,227
21706,-0.2665037298633479,,,226
21707,-1.0226933861616652,,,224
21708,-0.7879274141913835,,,232
21951,-0.9455302452109067,,,234
21952,0.5538449556423612,,,228
21953,-0.658913307621738,,,227
21954,-0.3945311111230578,,,229
21955,0.6904821225667841,,,229
22001,0.8426477049876817,,,230
22002,-0.18194242133199198,,,227
22006,0.6044515637089756,,,231
2201,-0.732001364801988,,,153
22012,0.28644853530787256,,,229
22013,0.18763075365124982,,,231
22014,0.49197985344557643,,,227
22015,0.737139807424023,,,230
22016,-0.3501855643018682,,,229
22017,0.2644482048615207,,,228
22019,0.12420445374840672,,,153
22102,-0.40719089128894354,,,231
22103,-0.5223058493645815,,,232
22201,0.08382245539642755,,,225
22203,-0.8932278104153522,,,229
22206,-1.0959647011573173,,,227
22207,-0.3654529803121845,,,235
22208,-0.9122888780500784,,,229
22209,-0.9941916982299241,,,233
22301,1.6930116566012534,,,227
22302,0.841412620814134,,,228
22304,0.5545931297910426,,,229
22306,1.6970072819063413,,,227
22401,-1.1566149105178751,,,227
22402,-1.4323941169206968,,,228
22404,-0.8090209514426837,,,226
22406,-0.5384022787658673,,,229
22409,-0.39345294902514333,,,232
22501,0.6408636646131719,,,229
22505,1.1007058832398535,,,224
22506,0.7914176743276465,,,226
22507,1.2772440983783457,,,230
22601,-0.5583243284126684,,,227
22603,-1.1955963675762447,,,232
22604,-0.9947247051286751,,,231
22703,1.8146129834247253,,,227
23001,1.14805008231845,,,229
23002,0.43084506732502664,,,227
23003,0.8203916823065827,,,224
23004,1.4634476850453009,,,226
23005,0.8602616450534989,,,226
23006,0.6947378844751084,,,225
23007,0.8694968202288832,,,234
23008,0.8616007044541906,,,231
23010,0.36911214324790576,,,226
23011,0.6791297764188696,,,223
23101,-0.21843102367354453,,,229
23102,1.0889617398917508,,,229
23104,2.0775898536422552,,,231
23105,-0.6701546534421245,,,231
23107,-0.7427190829550637,,,229
23201,-1.3906197015007011,,,229
23203,-0.9419213497359645,,,233
23204,-0.7530625043516279,,,230
23301,0.06464110789255165,,,230
23304,-1.1747228201703255,,,231
23403,0.5482059119269462,,,227
23701,-0.36990905601579077,,,230
23702,-0.6652020678844585,,,227
23703,-0.8168362738882291,,,227
23801,-0.6405632967902652,,,232
23803,-0.6873768892072863,,,229
23902,1.5061537149950142,,,229
23903,0.0814348806422787,,,224
24001,-0.737978705133652,,,231
24005,-0.4049375518995993,,,229
24006,-0.22067129787166193,,,224
24007,0.9506518241532081,,,224
24010,0.7715618498569105,,,226
25001,-0.004988379512079002,,,230
25003,0.20489856328399564,,,231
25004,-0.028371381017248294,,,229
25005,-0.7768398226827642,,,227
25007,-0.6473350677252336,,,229
25008,-0.763011409204086,,,227
25009,0.4830551302226808,,,231
26001,0.7927990389290899,,,229
26003,1.069712784555742,,,230
26004,1.0184490023870312,,,228
26005,0.9611740634863788,,,228
26006,1.2643174559896464,,,222
26008,1.877447441876378,,,226
26009,1.5133780881932242,,,229
26011,1.0966129085240781,,,233
26013,0.8668236494499504,,,233
27001,0.9163816866302259,,,232
27002,1.9688600426673974,,,229
27008,0.592699520910705,,,222
28001,1.3154473208049546,,,234
28002,-0.5814480955962451,,,153
30002,-0.13144895005922366,,,232
30003,-0.1092821504849715,,,228
30004,1.215306258584304,,,227
30005,0.7816031109249028,,,228
3001,0.26415887817510486,,,225
3004,0.4488196090381728,,,226
3005,1.633451105063066,,,229
3006,1.3976666391486385,,,233
3007,0.5222638679183679,,,227
3009,0.6397874921874903,,,226
31003,0.4502973091965523,,,227
31005,-1.1343459765544284,,,229
31007,-0.06665745300869247,,,226
31009,-0.2160470813786793,,,227
3101,0.38089376024970856,,,230
31010,-1.162380386709083,,,231
31012,-0.43165371476537756,,,227
31013,-1.168846388193201,,,230
31016,-0.7758608408615071,,,229
31017,-0.49213552031843266,,,227
31018,-0.05627041697702418,,,225
31019,-0.8025235332487392,,,223
31020,-0.6416742797315061,,,228
31023,-0.9017663271904331,,,230
31024,-1.113980802418554,,,233
31025,-0.8146361857902037,,,226
31026,-0.5571356329159219,,,230
31101,-0.6431164410853801,,,232
31102,-1.006868241489394,,,227
31103,0.04545853621500145,,,234
31104,0.49056311505857997,,,226
31105,1.2088045761762043,,,230
31202,0.09780625945745754,,,225
31301,0.9485424044637062,,,232
31303,-0.2984856636088308,,,232
31701,-0.19453212210986345,,,227
31702,-0.8390326760159904,,,231
31703,-0.8457077664118069,,,226
31704,-0.9037899251810383,,,229
31705,-1.480792389495381,,,230
31706,-0.9077329913974942,,,228
31707,-1.502510183698485,,,229
31708,-0.8317431680209233,,,230
31709,0.036974283014013135,,,227
32001,0.21448106335871897,,,226
32003,0.12513015226283303,,,231
32004,1.0888583953028461,,,225
32010,0.4120516163046541,,,229
32011,0.4586273431900764,,,228
32012,-1.1854923853127455,,,228
32015,1.0412092340653052,,,226
32016,1.4362404009382412,,,226
32017,1.0046472361256824,,,234
32019,1.471218059688529,,,225
32020,0.25940671484155886,,,230
32022,1.3692043000893417,,,82
32024,0.432505235464861,,,229
32301,-0.7571939861748299,,,231
32302,-0.901739392467096,,,232
32304,0.2535252692877189,,,106
32305,-1.134293535539867,,,231
32308,0.1142789005657926,,,153
32601,-1.7530656612408444,,,229
32603,-1.144432512827344,,,233
32605,-0.5790372760462906,,,229
33001,0.07811572051523445,,,234
33003,-0.7736141928325296,,,226
33005,0.830903012163969,,,228
33006,0.6032615513212907,,,231
33009,0.4129303245748905,,,224
33012,0.9645041254214379,,,229
33014,0.7330749605364004,,,230
33015,1.29002150961728,,,227
33016,0.4209602645470901,,,225
33017,1.4781037188815693,,,232
33019,1.2710607204095337,,,230
33020,0.23378771523451056,,,228
33102,0.2002195583521309,,,232
33103,-0.33338599005195657,,,229
34002,0.917361836721881,,,226
34005,-0.31547854292741895,,,233
34008,1.0443972663766983,,,228
34010,0.9532889822433273,,,227
34011,0.9172076258565421,,,229
34012,0.9379732465858314,,,227
34013,0.7361794860413065,,,232
35001,0.44396116391356566,,,222
35003,0.3235176414206449,,,232
35004,-1.7235126389583395,,,229
35007,-0.0005733309791545902,,,227
35008,-0.009263168189402371,,,228
35009,0.4779757730739646,,,224
35014,0.33995750664094276,,,230
35017,-0.49974153630414264,,,228
35018,0.492243391232372,,,229
35021,-0.9271638407399682,,,229
40001,0.5943768199079696,,,235
40002,0.7513175109999936,,,228
40003,-0.3752741438864843,,,228
40004,-0.8005525497150908,,,229
40005,-0.5191403479528659,,,221
40007,0.2616012286037933,,,229
40008,-0.7232478780545942,,,229
40009,-0.8269003347863854,,,230
4001,0.6282280959015083,,,231
40011,0.0966813094700397,,,234
40012,-0.5718046166706854,,,228
40015,0.7282269182413125,,,229
4002,0.9879794506741262,,,224
4003,0.5324475670896196,,,230
4006,1.263193959908842,,,234
4007,1.5986690771969794,,,229
4009,0.3857507522702271,,,225
4010,1.5436159055250156,,,228
4011,-0.549595239899045,,,228
4013,1.4608390243337877,,,230
4014,0.7165171112024583,,,223
4015,0.6278287536459959,,,220
4017,1.1579296312550238,,,227
4018,0.7478586201107222,,,225
4019,0.4229789478776881,,,231
4021,0.5698610111726147,,,231
4101,0.9799887139060965,,,224
4104,0.7660999259210601,,,230
4107,0.5803550693168045,,,230
4109,0.5158328377563858,,,231
41101,2.0393274024563555,,,224
41202,1.5847807898120323,,,225
41205,-0.479421690404326,,,227
41206,-1.1475068368317562,,,225
41207,-0.6161524587637676,,,223
41208,0.23166934548045343,,,224
41209,-0.6927850066908696,,,228
41210,-0.8235277160587098,,,233
41211,-1.007058133756991,,,231
41212,-0.14520184713226278,,,232
41301,-0.6666931153605868,,,229
41302,-1.429261706272918,,,227
41401,0.5130832011389108,,,232
41402,1.0857251655156912,,,230
41403,1.3292522316924336,,,231
41404,0.8183538868047274,,,230
41405,1.370120441735676,,,228
41601,-0.30149159550235227,,,229
41602,-0.392209708664788,,,230
41604,-0.3705034111197298,,,231
41606,-0.33944221247181655,,,227
42003,0.5732811029925471,,,226
42004,1.6862624274928073,,,226
4201,0.5816849454418437,,,170
42010,2.015755080440058,,,230
42011,1.19756772334303,,,228
42016,-0.32369143021541635,,,231
42018,-0.887278545591588,,,229
42019,2.139092181198017,,,229
42022,2.3030648528013966,,,229
42024,0.7885391763747148,,,229
42026,-1.4521590304660161,,,223
42027,-0.39128606022553564,,,230
42028,-0.008160611237970627,,,227
42029,-0.15774534683277686,,,231
42030,1.5711429849197263,,,228
42205,0.6989864795996621,,,225
42209,1.4199653281846147,,,228
42210,1.2977656304904504,,,234
42301,0.03520748303486381,,,231
42303,0.8819137496222798,,,230
42304,0.6435131784698319,,,233
42305,0.01848331871434182,,,233
42501,0.9486346109451987,,,224
42503,-0.4553964825025885,,,229
42504,-0.14965750168479866,,,229
42505,1.0100016036208346,,,229
42703,-0.6670797061671077,,,230
42704,-0.8372945573585542,,,224
42706,-0.9140612187152957,,,231
42707,-0.21661160117301348,,,233
43001,0.1380632998451394,,,229
43002,-0.2209410750958754,,,234
43003,0.03371877537221172,,,228
43004,-0.08589298220273345,,,228
43005,1.8098155627991854,,,230
43006,0.06324406307002571,,,229
43007,-0.03494709884164644,,,227
43008,0.40992050018533566,,,230
43009,0.27539872408786803,,,233
43010,-0.6187212445394746,,,153
43402,1.821310366207004,,,229
43403,-0.15984573475560407,,,229
44002,1.7077263414469164,,,230
44004,2.8116889781163543,,,227
44005,1.2286691133914318,,,231
44006,0.2460596933009563,,,227
44007,1.3488172947717447,,,234
44008,1.110298425458397,,,231
44010,0.4936806660524817,,,234
44011,-0.16215539090995532,,,227
44012,-0.6530923634897327,,,230
44013,-0.6896922658887653,,,227
44014,-0.10520789895606025,,,233
44016,0.4208956065426151,,,228
44017,1.1084571171092208,,,234
44018,-0.5045946785025095,,,153
44101,3.9553083099642516,,,228
44103,0.42342446111618287,,,230
45001,1.4016154888868544,,,232
45002,0.4468134062218784,,,227
45003,-0.15383111752490045,,,235
45005,1.5088525860927815,,,230
45504,0.1142789005657926,,,153
46001,1.5593464598854228,,,229
46002,0.7855471809788943,,,231
47001,3.5703686840282356,,,224
47004,0.8487861979256477,,,233
47005,1.285241859960145,,,228
47007,0.6224089210996725,,,228
48001,-1.0410590248066824,,,228
48002,-0.774152490151165,,,227
48003,-0.4777888861822092,,,232
48004,-0.3372492986495397,,,227
48005,-0.49893936962631635,,,225
48006,-0.6054344688340594,,,228
48008,-0.9514410576248407,,,232
48011,-0.5699091080519867,,,229
48012,-0.4312642689165403,,,228
5001,0.3624814439261687,,,231
5002,0.8901921366994483,,,224
5003,-1.1092016083055947,,,232
5004,-0.40173388398244336,,,227
5005,-1.7985127218286385,,,229
5007,-0.4558094072825393,,,231
5019,0.8837096935248928,,,228
5020,1.2389698358249388,,,229
5022,-0.32883310956672285,,,232
5024,-0.2737612895852915,,,227
5026,0.9005511394330477,,,232
5027,1.6014201638957941,,,223
5028,0.4781589748640161,,,228
5031,-0.5136207129548469,,,230
5032,0.2324890985035578,,,231
5033,0.620702629561028,,,228
5034,-1.183469293304943,,,227
51001,-1.158029839064239,,,231
51002,-0.10151303150968015,,,231
51003,-0.5279938780584219,,,228
51004,-0.47408350501814284,,,229
51005,0.6944847947473388,,,230
51008,2.076370218790748,,,230
5105,1.2296712701571588,,,224
5106,0.2306447199362232,,,153
5107,1.4212409117064237,,,227
5110,-0.6832809969379323,,,233
5116,1.3785617849427578,,,231
5119,-1.3770699556083308,,,231
5121,1.026611002068649,,,228
5122,-1.0319039782187498,,,228
5123,0.26307022675153835,,,229
5124,-0.7026470532669862,,,225
5201,-0.26230104003792126,,,226
5202,-0.9503484227500609,,,223
6001,0.42189820000790634,,,227
6002,-0.24852856201314433,,,229
6005,-1.490507158954639,,,227
6006,-0.44842169167359236,,,230
6007,-0.6076227149466151,,,228
6009,-0.4830511419009018,,,228
6010,-0.3492630797174414,,,231
6013,0.16019200106950565,,,231
6014,0.922866570737532,,,225
6015,0.5381149640128059,,,227
6016,1.0983710491377139,,,234
6017,0.7602339952384627,,,233
6018,-0.2758286382855854,,,225
6022,0.6409367766786469,,,230
6025,-0.7400680568051593,,,229
6026,-2.212623592284218,,,229
6027,-0.29742452767424854,,,230
6032,-0.2655181168720331,,,230
6104,-2.045317510068908,,,229
6107,0.08658329669846551,,,232
6108,-0.178294186685,,,235
6201,-0.09000512728352497,,,228
7002,0.24609752499029183,,,231
7003,-1.0918452361859932,,,233
7004,-0.2986514900480233,,,230
7005,0.9200058292444814,,,222
7006,0.33559053387738613,,,226
7008,-0.17636929240736154,,,229
7009,-1.5845616502588917,,,228
7010,0.3482264513232279,,,224
7012,0.41129088389373086,,,228
7013,-0.152400169936108,,,224
7015,-0.5285873451913289,,,232
7018,-0.09712346819634642,,,231
7021,0.59470760737587,,,224
7023,4.726601401948823,,,227
7024,0.4778919222830385,,,228
7025,0.3524615324393666,,,227
7026,-0.1865524165607511,,,228
7102,1.3883807656216534,,,229
7111,-0.19605295341795553,,,232
7201,-0.30607154698281513,,,227
7202,-0.33989661602839943,,,227
8001,1.3838548422545345,,,233
8003,-1.1699913216860844,,,229
8007,0.5792247056339941,,,225
8008,0.5611443643043728,,,225
8009,1.433768304062767,,,232
8010,-0.8849575321956581,,,227
8015,-0.2923805838224189,,,228
8016,-0.10711107518965311,,,233
8017,-3.2371514946098094,,,229
8018,0.44153317003769976,,,228
8019,-1.2494499411857969,,,230
8020,-2.056152245216108,,,230
8025,-0.09074621944003487,,,233
8028,-0.5546705912400701,,,228
8031,0.49415594142383157,,,230
8033,0.10199824564341538,,,228
8035,-0.7781613417331363,,,231
8036,-1.2422280055529211,,,226
8037,-1.5979143536025613,,,230
8039,-0.12932880463025503,,,225
8040,-0.25479371213319096,,,230
8044,-1.1223969545791481,,,228
8045,1.0504032094130513,,,229
8046,0.44531164446052374,,,227
8049,-0.1431641232606066,,,230
8050,0.5285876521410733,,,235
8051,-0.6903902326776222,,,226
8052,-0.4784100708563309,,,226
8053,-0.5186739391021006,,,235
8054,-0.5507267777679965,,,230
8055,-0.837090630781112,,,227
8056,-1.2897832812707066,,,230
8057,-1.3109691591595969,,,226
8102,-0.3945662987337772,,,232
8103,-0.5656811009982721,,,232
8105,-0.24666713922847588,,,234
8110,-1.228984459187047,,,231
8116,-0.6187212445394746,,,153
8117,0.8050335069744655,,,228
8201,-1.2010577350816412,,,228
8202,-1.4553661562635865,,,228
8203,-0.09829781925997057,,,230
8549,-0.2296825904526313,,,229
9001,-0.1295439396878546,,,233
9002,-0.21060903742633008,,,231
9004,-0.8911624999187915,,,229
9007,-0.8426830792515572,,,228
9008,-0.6166027246961484,,,234
9009,-0.6760909055319269,,,227
9010,-0.44284810994237656,,,224
9011,0.3914572763763909,,,230
9013,-0.11310946393323623,,,229
9016,-0.025005130665018332,,,230
9017,-1.010878108343728,,,230
9019,-0.5640008479841099,,,229
9020,-0.7736580255604917,,,229
9023,-0.6884490392260186,,,231
9024,0.05347073424371962,,,231
9025,-1.3653702555250786,,,226
9026,-0.4780821675186501,,,228
9027,-0.9209211248831372,,,231
9031,0.002494529239764808,,,227
9032,0.8007913975036796,,,231
9034,0.7120919597349786,,,226
9037,-0.5792972075126307,,,224
9038,-1.3274399304327709,,,233
9039,0.41878963009756587,,,229
9101,-0.008962367314781809,,,230
9104,0.22360629805934573,,,229
9106,-0.32333126735949824,,,232
9111,-0.1958516950424058,,,229
9113,-0.35576235268050144,,,228
9114,-0.9689854536254507,,,229
9115,-0.4329865777521988,,,229
9117,-1.1895410927388343,,,231
9118,-1.3259707491492307,,,230
92003,0.10852410735602237,,,227
92004,-0.4428525601945341,,,153
92005,0.42739538533866406,,,229
92007,-0.5933491891137359,,,230
92008,0.965037943995427,,,231
